15.574987113271904, 11.36991276964306, 7.476692088293689, 10.21364315580529, -49.69292589786975, -6.895392757898692, -1.2390368278531365, -8.319647535129624, 21.873519566510282, -5.665933458307731, 12.49063253254913, -44.08060326503988, 18.83505597998176, -2.615205516739605, 21.91240353555741, -20.9840139115247, -2.605966804210413, 1.932934676676768, -23.015652526554717, -3.5671344035165875, 13.630076820958315, 6.871453670345259, -38.310845892016474, 3.6197448694586134, 5.998216086640434, -47.13222213086303, 7.714338151875094, 12.083000748388026, 9.055188152388663, 9.403924993592284, -72.57731331943769, 1.3063021447076972, 21.194795569024386, -28.637395634267875, 19.548721141436605, 20.548387177697034, -19.416644159596597, 84.20801462093164, -19.419823465826983, -41.29171206953027, -20.66300496258652, -23.39471363168993, 21.83415911264818, -0.2922164878264193, 19.007145692819325, -37.757177861057926, -62.146358349368526, 19.13914118314036, 18.419083300833794, 5.048853260168711, -68.66685051867412, -34.77245204451752, 19.05123425850215, 22.01287080589759, 18.96787218781126, 4.29585554507139, 21.05545259265873, -35.771030692792834, 19.784045220908585, -70.53540929027967